-5.952606797218322754e-01
-1.214713156223297119e-01
1.153075218200683594e+00
-8.194638490676879883e-01
-3.475845456123352051e-01
-4.136574566364288330e-01
1.767389103770256042e-02
4.478782117366790771e-01
-5.516949892044067383e-01
-7.101087570190429688e-01
-2.352862209081649780e-01
4.153898358345031738e-01
-1.251315623521804810e-01
7.772182822227478027e-01
-1.875748336315155029e-01
4.886638522148132324e-01
4.588734507560729980e-01
-1.099303603172302246e+00
7.212393879890441895e-01
3.423433899879455566e-01
-4.028614461421966553e-01
2.847217917442321777e-01
9.924580901861190796e-02
-3.635984361171722412e-01
3.458960652351379395e-01
3.179610893130302429e-02
-6.904093623161315918e-01
2.863723933696746826e-01
-6.829982399940490723e-01
-1.186431288719177246e+00
-4.442466795444488525e-01
8.130912184715270996e-01
-2.496609091758728027e-01
-3.343250453472137451e-01
-3.153702318668365479e-01
-5.591866970062255859e-01
4.302424192428588867e-01
-4.968059957027435303e-01
-5.559870600700378418e-01
5.814750194549560547e-01
5.117301344871520996e-01
-8.110964894294738770e-01
-6.114344000816345215e-01
4.360195696353912354e-01
-6.964147835969924927e-02
1.517837524414062500e+00
-3.548587560653686523e-01
2.577883601188659668e-01
8.162382841110229492e-01
3.217377662658691406e-01
3.716891705989837646e-01
-8.887465000152587891e-01
2.684100270271301270e-01
-5.737892389297485352e-01
7.829896807670593262e-01
-2.653816640377044678e-01
5.120537281036376953e-01
3.447328209877014160e-01
-4.003248512744903564e-01
-7.817600965499877930e-01
-5.134034752845764160e-01
3.378663063049316406e-01
1.474671363830566406e-01
-5.066366195678710938e-01
4.129020869731903076e-01
-6.295344233512878418e-01
2.557451128959655762e-01
5.529498457908630371e-01
4.084024205803871155e-02
2.910866588354110718e-02
5.880713835358619690e-02
-4.907728731632232666e-01
-3.488266095519065857e-02
1.636870801448822021e-01
7.850714772939682007e-02
-2.988378703594207764e-01
6.641690731048583984e-01
3.581595718860626221e-01
-4.126481711864471436e-01
4.141058325767517090e-01
-4.369136393070220947e-01
-6.231611967086791992e-01
5.632796883583068848e-01
-3.336681723594665527e-01
-6.115718558430671692e-02
8.096694946289062500e-01
2.188869714736938477e-01
-4.519718587398529053e-01
-3.227614164352416992e-01
5.045662522315979004e-01
2.351034730672836304e-01
-3.771032392978668213e-01
8.112139999866485596e-02
-3.037286400794982910e-01
-6.411939263343811035e-01
2.425644844770431519e-01
-4.620198905467987061e-01
6.460815668106079102e-01
-7.083045840263366699e-01
6.789418458938598633e-01
5.451057553291320801e-01
-3.332436382770538330e-01
7.486944794654846191e-01
-2.940918803215026855e-01
-2.355117350816726685e-01
4.088678658008575439e-01
6.236994266510009766e-01
3.747942745685577393e-01
-2.795556187629699707e-01
-5.406206846237182617e-01
1.248067140579223633e+00
-2.900325059890747070e-01
1.224569559097290039e+00
-3.986296951770782471e-01
-3.961246907711029053e-01
-4.638724923133850098e-01
-3.209720551967620850e-01
-5.879021286964416504e-01
4.653085172176361084e-01
-3.147352933883666992e-01
-3.886281847953796387e-01
4.214462637901306152e-01
-8.636413216590881348e-01
-5.096026062965393066e-01
5.335805192589759827e-02
-7.176246047019958496e-01
7.334080934524536133e-01
-5.831214189529418945e-01
-8.145395666360855103e-02
2.979328632354736328e-01
-4.541175067424774170e-01
-4.281103909015655518e-01
-6.269682645797729492e-01
6.123827099800109863e-01
4.981267452239990234e-01
3.309447169303894043e-01
3.059126734733581543e-01
5.969376564025878906e-01
3.858437538146972656e-01
-5.566065907478332520e-01
6.397193074226379395e-01
-2.827631533145904541e-01
1.657845526933670044e-01
7.310647368431091309e-01
-5.688108801841735840e-01
1.436444520950317383e-01
-6.334621459245681763e-02
5.654397606849670410e-01
-9.860829114913940430e-01
9.229916930198669434e-01
-4.032957851886749268e-01
3.956749141216278076e-01
6.545125246047973633e-01
2.022014856338500977e-01
-8.108841776847839355e-01
-6.052983999252319336e-01
2.857053875923156738e-01
-2.783446013927459717e-01
-2.650541663169860840e-01
2.787745893001556396e-01
-2.720402553677558899e-02
-4.653034210205078125e-01
1.181954622268676758e+00
3.431811928749084473e-01
1.731497794389724731e-01
3.271904289722442627e-01
4.097387492656707764e-01
1.472815573215484619e-01
3.418403267860412598e-01
-2.389814108610153198e-01
-4.427881538867950439e-01
2.444765567779541016e-01
3.241218030452728271e-01
3.911564350128173828e-01
-4.350996911525726318e-01
-3.164719045162200928e-01
-3.809475302696228027e-01
-3.150056898593902588e-01
7.291535735130310059e-01
1.474074274301528931e-01
7.041583657264709473e-01
6.029413938522338867e-01
6.430024504661560059e-01
-3.282032907009124756e-01
1.068860590457916260e-01
8.180548548698425293e-01
3.708902001380920410e-01
1.768343299627304077e-01
6.293355822563171387e-01
1.232832148671150208e-01
3.138628005981445312e-01
-5.926941633224487305e-01
-4.353550076484680176e-01
-6.323608756065368652e-01
4.206866398453712463e-02
-1.836289912462234497e-01
1.392833828926086426e+00
5.233553051948547363e-01
5.326640009880065918e-01
-2.313930355012416840e-02
-2.904784083366394043e-01
-3.824996352195739746e-01
-3.962023556232452393e-01
-1.902286857366561890e-01
-4.738175868988037109e-01
3.486375808715820312e-01
3.809408545494079590e-01
-7.553011775016784668e-01
4.793731868267059326e-01
-5.867720842361450195e-01
1.380961239337921143e-01
-3.931076824665069580e-01
-4.294985532760620117e-01
7.732458710670471191e-01
-7.214669585227966309e-01
3.475520312786102295e-01
-5.408622622489929199e-01
-7.471719980239868164e-01
-5.447990894317626953e-01
3.969545960426330566e-01
-3.081536591053009033e-01
-1.950168758630752563e-01
3.317818641662597656e-01
8.963584899902343750e-01
2.370948940515518188e-01
-8.007212877273559570e-01
-4.503005370497703552e-02
4.413396120071411133e-01
1.759429872035980225e-01
-3.669431209564208984e-01
-6.373961567878723145e-01
-7.026299834251403809e-01
2.767471373081207275e-01
-4.141936302185058594e-01
3.191848397254943848e-01
-2.914903759956359863e-01
6.017124056816101074e-01
-2.432378679513931274e-01
3.530244529247283936e-01
-6.814044713973999023e-01
-2.478714734315872192e-01
-2.825696766376495361e-01
1.757849007844924927e-01
7.450113296508789062e-01
4.231892228126525879e-01
3.105161190032958984e-01
2.087784856557846069e-01
5.437552332878112793e-01
6.883717179298400879e-01
-3.001386523246765137e-01
6.400930881500244141e-01
3.741114735603332520e-01
-5.534234046936035156e-01
6.186605691909790039e-01
4.680004119873046875e-01
3.831267356872558594e-01
