5.290441513061523438e-01
1.780678168870508671e-03
-9.103569984436035156e-01
-5.067096948623657227e-01
4.229288697242736816e-01
-6.319046020507812500e-01
-8.011438846588134766e-01
1.360834389925003052e-02
-4.215545486658811569e-03
3.908254504203796387e-01
-3.677950799465179443e-01
2.549757957458496094e-01
-4.654448628425598145e-01
-6.204098463058471680e-01
-4.489803612232208252e-01
3.473338484764099121e-01
-3.687694370746612549e-01
-4.235573410987854004e-01
2.118822634220123291e-01
1.071488976478576660e+00
2.019074261188507080e-01
5.192565917968750000e-01
4.570366814732551575e-02
3.447282016277313232e-01
-3.879338502883911133e-01
4.202378988265991211e-01
-4.192369058728218079e-03
3.222952783107757568e-01
5.684763789176940918e-01
-8.347515761852264404e-02
3.561901748180389404e-01
-3.675554096698760986e-01
-5.367557406425476074e-01
7.142642736434936523e-01
8.743248879909515381e-02
-2.667244970798492432e-01
-9.037828445434570312e-01
-7.224890589714050293e-01
-9.513262510299682617e-01
-6.045196056365966797e-01
3.782694935798645020e-01
-6.076446771621704102e-01
-5.309560894966125488e-01
-3.100837469100952148e-01
-4.513316154479980469e-01
-8.190609216690063477e-01
4.012610614299774170e-01
-4.366897046566009521e-01
2.623216807842254639e-01
7.011891603469848633e-01
-2.402646541595458984e-01
-3.387534320354461670e-01
6.735516339540481567e-02
4.360198676586151123e-01
4.398188889026641846e-01
4.352268874645233154e-01
1.588974297046661377e-01
7.782032489776611328e-01
4.071881175041198730e-01
4.273253381252288818e-01
-4.629034698009490967e-01
5.578149855136871338e-02
-5.834074616432189941e-01
-4.205389916896820068e-01
-6.485227346420288086e-01
-3.506982326507568359e-01
-1.053625419735908508e-01
-5.110112428665161133e-01
3.567237555980682373e-01
-1.650261282920837402e-01
-2.668466866016387939e-01
-3.354878127574920654e-01
-1.078478172421455383e-01
-7.999678254127502441e-01
3.704162538051605225e-01
2.987821958959102631e-02
-9.911762177944183350e-02
1.949737370014190674e-01
-9.024142026901245117e-01
-2.937902510166168213e-01
-8.423380553722381592e-02
5.624608397483825684e-01
-3.383460640907287598e-01
1.053248718380928040e-01
-2.126173377037048340e-01
-9.490129947662353516e-01
-2.365239262580871582e-01
5.901281163096427917e-02
1.138420820236206055e+00
-4.588970243930816650e-01
7.352772951126098633e-01
3.425102829933166504e-01
5.533443093299865723e-01
-5.412372350692749023e-01
-5.880851745605468750e-01
4.242057800292968750e-01
-3.650055229663848877e-01
2.642673850059509277e-01
-4.024344086647033691e-01
3.743787407875061035e-01
-1.848792433738708496e-01
-4.728941023349761963e-01
2.917786836624145508e-01
-5.651610493659973145e-01
7.885386347770690918e-01
2.273137569427490234e-01
-1.376061141490936279e-01
2.506378889083862305e-01
2.845279574394226074e-01
7.402470111846923828e-01
-4.282464683055877686e-01
-6.658832430839538574e-01
-4.001896977424621582e-01
7.821999490261077881e-02
3.879393935203552246e-01
-3.381117880344390869e-01
5.294413566589355469e-01
5.311205387115478516e-01
1.380028575658798218e-01
-6.048141121864318848e-01
4.235117137432098389e-01
6.090048551559448242e-01
-2.584941387176513672e-01
-5.046017169952392578e-01
4.048372805118560791e-01
6.935960650444030762e-01
1.295236498117446899e-01
3.900885283946990967e-01
-4.336360096931457520e-01
2.562317550182342529e-01
5.063375830650329590e-01
3.205114305019378662e-01
-6.234378218650817871e-01
-7.080071568489074707e-01
4.740385413169860840e-01
7.059603333473205566e-01
4.377638995647430420e-01
9.144118428230285645e-01
6.592009663581848145e-01
6.961137652397155762e-01
-4.722357094287872314e-01
3.288787007331848145e-01
-2.537517845630645752e-01
2.537630498409271240e-01
1.293899178504943848e+00
-4.705004692077636719e-01
6.142301559448242188e-01
-1.136790886521339417e-01
-8.674177527427673340e-01
-4.689931869506835938e-01
4.232333898544311523e-01
-2.504250109195709229e-01
-7.537720799446105957e-01
-5.610395669937133789e-01
3.865374028682708740e-01
4.393879771232604980e-01
-6.479851603507995605e-01
-7.470753788948059082e-01
4.609028398990631104e-01
-1.599517166614532471e-01
4.346659183502197266e-01
9.661465883255004883e-02
-3.995402455329895020e-01
2.266509532928466797e-01
-3.527725040912628174e-01
-8.301185369491577148e-01
9.124319553375244141e-01
-4.443480372428894043e-01
-3.948269486427307129e-01
-4.502902626991271973e-01
7.300460338592529297e-02
3.497788310050964355e-01
5.609146952629089355e-01
-3.412894904613494873e-01
-2.765067517757415771e-01
3.535876274108886719e-01
3.083509765565395355e-02
5.735283493995666504e-01
5.601568818092346191e-01
-1.726474463939666748e-01
-3.212579339742660522e-02
7.269128561019897461e-01
-5.951068997383117676e-01
2.582746744155883789e-01
5.894052386283874512e-01
5.324048176407814026e-02
-4.482278227806091309e-01
-4.733189046382904053e-01
-5.675722360610961914e-01
-4.477046728134155273e-01
2.093908935785293579e-01
-5.193812847137451172e-01
-6.739081144332885742e-01
4.657741487026214600e-01
-3.111316263675689697e-01
2.303195446729660034e-01
-5.422108173370361328e-01
2.846978604793548584e-01
4.326632320880889893e-01
-7.245167493820190430e-01
8.909218907356262207e-01
-2.566238939762115479e-01
-5.569263100624084473e-01
-3.826121985912322998e-01
1.396759301424026489e-01
2.205064445734024048e-01
-4.278516769409179688e-01
7.205796893686056137e-03
-2.531559169292449951e-01
2.431495301425457001e-02
1.017471075057983398e+00
-1.020428299903869629e+00
4.876552820205688477e-01
3.315228819847106934e-01
-2.301682382822036743e-01
-3.363073170185089111e-01
-1.675609350204467773e-01
3.774185776710510254e-01
-4.417958557605743408e-01
4.026986658573150635e-01
6.017868518829345703e-01
-1.027090027928352356e-01
-8.574241399765014648e-02
-5.038197040557861328e-01
-6.784624457359313965e-01
8.173289895057678223e-02
-3.760380148887634277e-01
-5.805376768112182617e-01
-1.425759494304656982e-01
3.602058589458465576e-01
6.476728916168212891e-01
-6.136245131492614746e-01
2.563314139842987061e-01
-1.530161499977111816e-01
-1.471374034881591797e-01
-2.585792541503906250e-01
8.619341999292373657e-02
-3.557044565677642822e-01
3.840918242931365967e-01
5.651858448982238770e-01
-4.323408901691436768e-01
4.810566008090972900e-01
2.890375256538391113e-01
-3.292201161384582520e-01
7.018743753433227539e-01
8.040117025375366211e-01
1.354505866765975952e-01
-3.917632102966308594e-01
4.471693933010101318e-01
3.718485236167907715e-01
5.275423526763916016e-01
9.333815425634384155e-02
6.968263387680053711e-01
-3.548541665077209473e-01
-3.275435268878936768e-01
-4.049383401870727539e-01
